6 300
olá 0.245315 0.353304 -0.289430 0.201600 0.606790 -1.024987 0.544488 -0.425835 1.118762 -0.533940 0.357203 0.033578 -0.353946 0.430187 -0.157921 0.236120 0.647595 -0.034178 -0.418712 -0.179114 0.180957 0.730655 -0.051444 0.320635 -0.156946 0.250427 -0.359704 -0.086896 0.461113 0.500714 0.028338 0.130888 -0.426000 0.292102 -0.118136 -0.241644 -0.017255 0.008970 -0.526079 0.778626 -0.251419 0.107509 -0.147406 -0.387874 0.481297 0.420818 0.344334 0.018011 -0.157284 -0.302735 0.504302 0.117219 0.199005 0.096210 0.205299 0.092965 -0.004370 0.474109 -0.154473 0.044490 0.485165 -0.251176 0.194450 -0.295690 -0.133936 0.172996 0.448846 0.249469 0.140395 0.175374 -0.055349 0.292056 0.123773 0.039417 -0.412241 -0.151938 0.159965 -0.025831 0.110720 0.034272 0.356126 -1.152629 0.243742 0.556976 -0.013358 0.722945 -0.163078 0.599220 -0.081403 -0.194190 0.610075 -0.227287 -0.346154 0.193940 0.281293 0.084026 0.203636 -0.601337 -0.340498 -0.121458 -0.773936 0.595840 -0.353437 0.083188 0.814264 -0.198973 -0.347392 -0.199634 -0.145946 -0.541365 0.085055 -0.367342 -0.113549 0.371293 -0.241142 -0.683469 -0.618720 -0.149044 0.089928 0.475703 -0.664317 -0.687379 0.338098 -0.429185 -0.193228 -0.078050 0.504114 -0.043172 -0.055225 -0.145377 0.437904 0.269142 -0.138174 -0.090117 0.158454 -0.021356 -0.137500 -0.622090 0.426557 -0.450291 -0.256078 0.594615 -0.063636 0.073921 -0.359897 0.286325 -0.136282 -0.043445 0.394601 0.621486 0.405481 -0.265042 0.351938 -0.238443 0.227849 -0.110294 0.135280 -0.352412 0.321970 -0.238925 0.367796 0.013849 -0.203848 -0.103583 -0.540012 -0.257562 -0.309685 0.017433 -0.437248 -0.410904 0.256872 -0.315399 0.164199 -0.288904 0.026195 0.216286 0.094177 -0.073224 -0.500643 0.471045 -0.166190 0.135075 -0.283353 -0.607857 -0.123755 0.047052 0.031742 -0.101007 -0.612476 0.646376 0.389109 0.612084 -0.035368 0.133395 -0.703858 -0.719728 0.025490 -0.412704 0.127936 0.366152 0.217452 -0.050964 0.191510 -0.188499 -0.186223 -0.355672 -0.452978 -0.860618 -0.026371 0.251676 0.452067 0.258340 0.234081 -0.169679 0.799407 0.174679 -0.386393 0.302156 -0.458295 0.039824 -0.279602 -0.342175 -0.182748 -0.232648 -0.050303 0.807332 -0.079630 0.173131 0.747846 -0.009945 0.463029 -0.302764 0.087025 -0.640243 0.603948 0.012996 -0.103413 -0.003191 -0.203258 -0.167337 -0.313759 0.234783 0.248771 -0.250736 -0.439109 -0.404985 -0.221940 0.553253 -0.423116 0.105579 0.435375 -0.026662 0.529912 0.310017 -0.369280 0.112161 -0.107352 0.670194 -0.324331 -0.387188 0.433230 -0.160874 -0.444942 -0.181387 -0.493381 0.062959 -0.247645 -0.341222 0.307882 0.091140 0.059124 0.371247 -0.077031 0.661221 0.251025 -0.213444 0.141996 0.235837 0.124614 -0.498785 0.170970 0.319301 0.549656 0.534189 -0.525279 -0.308803 -0.516812 -0.141277 0.116256 0.041336 0.439635 0.419703 -0.524353 -0.393734 -0.082759 -0.427974 -0.686878 -0.231702 -0.297861 -0.267133
mundo 0.087869 -0.129952 -0.263653 -0.045615 0.271898 -0.213760 -0.302247 0.326599 0.542966 0.697529 -0.180744 -0.538995 0.000636 0.064418 0.109564 -0.537604 0.256318 0.083996 0.179333 0.145098 0.056021 0.076415 -0.339679 -0.397425 -0.251567 0.011450 -0.015833 -0.724470 0.491091 -0.221752 0.119546 0.206691 -0.392619 0.167564 0.093278 0.231564 -0.005512 0.155975 0.069474 -0.063609 0.338665 0.103311 -0.135641 0.402387 -0.056952 0.227071 -0.192350 -0.744209 -0.032312 -0.471118 0.601657 0.110233 0.146648 0.373146 0.059679 -0.009515 -0.102043 0.028081 0.136481 0.080221 -0.122173 -0.356762 0.259862 -0.150537 -0.063730 0.495662 -0.235009 -0.147294 0.129855 0.127965 -0.223948 0.449772 -0.240826 0.146510 0.117360 0.049076 -0.167797 0.134858 0.028791 -0.020553 -0.069680 0.180007 0.025243 -0.104941 0.299673 0.084118 0.052164 -0.908657 0.371005 -0.103826 0.307318 0.037445 0.188719 0.162003 -0.070310 0.012936 0.078869 -0.246962 0.129681 0.062668 0.270816 -0.043590 0.296951 -0.053514 4.065420 0.033987 -0.028279 -0.294254 -0.177800 -0.292016 -0.587010 0.132654 -0.016996 -0.539459 0.285029 -0.099300 0.202515 0.026756 0.262492 0.327007 0.008655 0.262805 -0.055247 0.494692 -0.479577 -0.233561 0.216154 0.259902 0.358021 0.561865 0.118869 0.010563 -0.487896 -0.161730 0.032371 -0.121835 0.137242 -0.099892 0.165193 -0.048136 -0.411765 0.145844 -0.287434 -0.078199 0.014402 -0.271226 0.145369 0.090560 -0.047824 -0.029091 0.219849 0.152665 0.324474 -0.286033 0.279236 0.167478 0.652682 0.008689 0.378392 -0.420874 0.211922 -0.121248 -0.710437 -0.851574 0.472055 0.269233 -0.534157 0.163093 0.210044 -0.309036 0.507470 -0.033298 0.131386 -0.432402 0.663268 0.559682 0.071279 -0.228056 -0.206427 0.525494 -0.080528 0.322742 -0.016661 -0.001807 0.738376 0.487162 -0.043529 0.470709 -0.098052 0.126997 0.420290 0.787463 -0.973036 0.087931 0.560973 -0.427937 0.299480 -0.350100 -0.023489 0.154579 0.070279 -0.510958 0.047426 0.331845 -0.301478 -0.702751 0.387561 0.568977 0.024150 -0.304793 0.438661 -0.459447 0.113395 0.140716 1.070769 0.115514 -0.722637 -0.224424 -0.263953 0.476982 -0.659227 -0.410789 0.336551 -0.015167 -0.514167 -0.139284 0.019885 0.340435 0.495301 0.344189 -0.403733 0.207478 0.022949 0.091037 -0.262788 -0.368995 0.273618 0.072580 0.413855 0.350884 0.544112 0.349976 -0.181279 -0.071088 -0.262060 -0.192712 -0.021764 0.019045 0.059435 0.520772 0.160955 -0.185288 -0.235754 0.201464 -0.486109 0.339275 0.296044 0.211506 -0.550019 0.529313 -0.199362 -0.034866 -0.276478 -0.120350 0.015870 0.112818 -0.154631 -0.000429 0.532529 0.047625 -0.026233 0.661590 0.012445 -0.065718 0.038781 -0.541716 -0.303869 0.071878 0.332320 0.273954 0.114089 0.175148 0.280433 -0.202480 0.535046 -0.026619 -0.098631 -0.826734 -0.277886 0.268965 0.071354 0.497721 0.347067 -0.418981 -0.454774 0.408047 -0.202243 0.187006 -0.029031 0.483437
hello 0.313994 0.978541 -0.316904 0.311286 0.285671 0.116920 -0.426712 0.000544 0.648130 0.395138 0.579633 0.443110 -0.406979 0.739821 -0.246962 0.042757 0.390408 -0.015412 0.420059 -0.234856 0.456653 -0.126505 0.191158 0.043351 -0.313249 -0.489722 0.015611 0.176093 -0.097489 0.158985 -0.137542 -0.520789 0.331898 0.362001 0.140040 0.112140 -0.043684 0.009841 -0.877304 0.204354 -0.040357 -0.051095 -0.690287 -0.285282 0.110528 0.355532 0.284347 -0.966222 -0.641159 -0.296076 0.572065 0.171641 -0.122766 -0.320483 -0.515223 0.154476 -0.154200 -0.491681 -0.131484 0.066130 -0.116445 0.192035 0.191924 -0.603120 -0.227164 0.283221 0.708985 -0.516949 -0.048344 -0.392634 -0.701937 0.011031 -0.297917 -0.432696 0.047386 -0.485437 0.287245 0.187285 0.278503 0.001359 0.431912 -0.069627 0.193755 0.198386 -0.041600 0.040929 -0.090382 -0.401770 -0.701493 0.097351 -0.043741 0.045803 0.402820 -0.056718 -0.025779 0.170433 0.712971 -0.125010 0.088107 -0.369432 0.007827 0.660064 0.161667 0.194988 -0.307133 0.447549 0.285795 0.037331 -0.056892 0.011441 0.360248 0.654844 -0.616612 -0.077914 0.368957 0.262951 -0.046144 -0.526680 0.449459 -0.001564 -0.617191 -0.645954 0.421720 0.481755 -0.367118 0.066387 0.269833 -0.239753 0.260223 0.339806 0.246384 0.056547 0.292153 -0.316696 0.221628 -0.688589 -0.573265 -0.191586 0.034774 -0.038417 0.382523 0.043641 -0.553469 0.198950 -0.305195 0.134495 0.072054 -0.239537 0.409943 0.505059 0.330114 -0.210115 0.098199 -0.207998 -0.476551 0.104210 0.719366 0.598718 0.059485 0.121906 -0.450612 0.280204 0.612658 0.164149 0.227551 0.114905 0.066018 -0.263654 -0.312433 -0.183871 -0.085684 -0.519269 0.000743 -0.175352 -0.096201 0.458250 -0.069969 0.310559 -0.193999 -0.009358 -0.626072 -0.025550 -0.625395 -0.163637 0.303240 -0.797114 -0.511270 0.222776 0.217282 1.010468 0.095965 -0.585802 -0.273238 0.726850 -0.257678 0.248358 -0.212211 -0.014914 0.416753 -0.141719 0.440947 -0.216911 0.652456 -0.152157 0.006961 -0.340733 -0.611617 -0.266732 0.077671 0.311147 -0.072285 0.439946 -0.191864 -0.072570 0.423722 -0.019767 0.015019 0.467800 -0.240317 -0.128900 0.084148 -0.312460 0.228571 0.282604 -0.472792 0.102111 -0.209462 0.170696 -0.267910 -0.231627 -0.402139 0.081549 -0.284102 -0.369870 0.442271 -0.031311 0.071925 -0.494250 -0.064955 0.124104 0.183386 0.989499 0.667413 -0.472347 -0.166513 -0.183767 0.332752 -0.149424 -0.386037 0.183235 0.195217 0.053701 0.101096 0.113851 0.266053 -0.363888 -0.298301 0.507165 0.044300 -0.295342 0.278731 0.049391 -0.515319 -0.591867 -0.055528 0.617069 -0.025347 -0.384328 -0.149407 0.350224 0.108181 0.191137 -0.399626 -0.205580 0.377112 -0.173305 -0.373364 0.910290 0.234786 -0.021552 -0.005936 0.546731 0.009617 -0.331641 0.437601 -0.103646 -0.216250 -0.035491 0.112754 0.278963 -0.142942 -0.023818 -0.400413 0.290723 -0.026093 -0.480144 -0.478258 -0.546623 -0.639816 0.104011
world 0.171594 0.586105 0.049268 0.138760 0.180291 0.723205 -0.649502 -0.324299 0.509270 0.871703 -0.003544 -0.175510 -0.490460 -0.084861 -0.063134 0.277822 0.310309 0.188842 0.560355 -0.463399 -0.651838 -0.206116 0.410283 -0.647099 -0.463671 0.685554 0.393900 0.343702 0.274634 0.153412 -0.212672 -0.074024 0.110508 -0.371901 -0.656869 0.366005 -0.208596 0.236730 -0.104890 0.531178 0.449324 -0.547234 -0.978748 0.338069 -0.111098 -0.135274 0.301603 -0.932140 0.053221 -0.207392 0.323430 -0.291175 -0.127189 0.154637 -0.347049 -0.202788 -0.033967 0.037474 0.271592 -0.569596 0.041756 0.103510 -0.266469 0.028811 -0.376090 0.922505 0.042379 -0.437273 0.202915 0.230098 -0.739691 0.333163 -0.004760 -0.440591 -0.900079 -0.090961 -0.084462 0.362711 0.602693 0.094928 -0.186485 0.282343 0.357398 0.252327 0.561419 -0.107718 0.176157 -0.039672 0.189946 0.629095 -0.247933 -0.529636 0.640789 0.024145 -0.928541 -0.532530 1.141006 0.398897 0.138110 -0.633083 0.198175 0.012739 0.516019 -0.116728 1.731781 0.786198 -0.501031 0.370849 -0.303655 0.141970 -0.519424 0.354378 -1.111438 -0.314614 0.762087 0.044562 0.639770 -0.428005 0.832372 -0.839735 -0.510040 -0.203994 0.157976 0.340733 -0.147907 -0.035451 0.696439 0.320050 0.108944 0.476312 0.559791 0.100687 0.008005 -0.136706 0.690464 -0.229214 0.123038 -0.103766 -0.209417 -0.094699 0.345205 -0.066075 -1.361821 0.054273 -0.032179 0.068901 0.792762 0.376451 0.360259 -0.035231 0.049326 0.050249 0.220925 -0.304641 -0.015803 -0.032485 0.737939 0.903898 0.171761 -0.024302 -0.028734 0.581195 0.708014 -0.652742 0.219860 0.257257 -0.305186 0.366952 0.051250 -1.024970 -0.118616 -0.451738 -0.363722 0.283693 -0.013983 0.804477 0.327258 -0.265646 -0.345159 0.193871 -0.563607 0.296624 -0.152263 -0.590144 0.371112 0.017900 -1.034577 -0.065802 -0.210804 0.610843 0.331735 -0.241500 -0.177992 -0.010177 0.149666 0.290598 -0.139733 -0.411270 -0.180074 0.208811 0.640066 -0.415323 0.326590 -0.196457 0.337384 -0.217511 -0.108538 1.031589 -0.607525 -0.714232 -0.350756 -0.651177 -0.033376 0.474176 1.515714 0.250829 -0.566549 -0.223375 -0.275127 -0.099711 -0.301832 -0.769659 0.036542 -0.274963 -0.339247 -0.347092 0.393370 -0.126391 0.617403 -0.053078 -0.282428 -0.626090 -0.580241 -0.575427 -0.195141 -0.252139 0.646382 -0.009047 -0.336912 0.633168 0.152175 -0.110248 0.325507 -0.305933 -0.209532 0.232339 0.290249 -0.350781 0.117063 0.323439 -0.613127 -0.408935 -0.225946 0.290542 0.314681 -0.356578 -0.263574 -0.413274 -0.285153 0.464377 0.161492 -0.123697 0.467757 0.012705 -0.148280 -0.198490 -0.567233 -0.810288 0.329470 0.070742 -0.678077 -0.129969 0.320115 0.261152 0.399304 -0.049565 -0.513920 0.508538 0.173854 0.445184 -0.003624 0.555828 -0.267373 -0.678570 0.684521 0.304785 -0.704976 -0.345334 -0.278066 -0.297090 0.068216 0.175950 0.238243 -0.216231 0.225320 -0.002470 -0.044731 -0.138331 -0.091061 -0.100487
! 0.089976 -0.532870 -0.378355 0.425183 -0.008113 -0.422668 0.381852 0.320973 0.980469 0.416885 -0.267784 0.507629 0.046527 0.786425 0.356939 -0.325077 0.787577 0.224801 0.283318 -0.082123 0.195445 0.255380 0.187222 0.344870 -0.161417 -0.227800 -0.876545 -0.450941 0.276298 -0.137574 -0.303781 -0.243501 0.054806 0.054546 0.168232 -0.913251 0.581263 0.399541 -0.679116 0.219451 -0.265371 0.218906 0.054921 -0.216878 0.015805 0.610906 0.268386 0.152564 0.260625 -0.434171 0.529006 -0.141077 0.207913 -0.606225 -0.022856 0.523678 0.188112 0.747476 -0.030854 -0.215416 0.465970 0.528595 0.090787 0.033957 -0.662492 0.338790 0.602112 0.459353 0.512755 -0.080371 -0.304705 -0.250216 -0.300254 -0.009515 0.184240 0.202651 -0.429136 0.295974 0.309325 -0.236177 0.473285 -0.640076 -0.209659 0.267864 0.406789 0.309210 -0.347472 -0.610184 0.527257 0.145327 -0.200565 -0.002813 -0.120296 0.838887 -0.581035 0.071921 0.509623 -0.873443 0.293409 0.220004 -0.004520 0.834297 0.568387 0.089194 3.807375 0.389233 0.161260 0.086990 0.491011 -1.030319 0.570952 0.311212 -0.782449 0.143671 0.200427 -0.228466 -0.122665 -0.357713 -0.187002 0.309741 -0.143385 -0.500196 0.367140 0.036763 -0.028838 0.232214 0.293683 -0.032225 -0.287464 0.099778 -0.063701 0.229119 -0.856617 0.051403 0.135979 0.345001 -0.305905 -0.615849 0.239667 -0.286760 -0.382042 0.212194 -0.198811 0.574109 -0.120734 0.691330 0.357113 -0.065371 0.523112 0.467412 1.066532 0.514471 -0.431388 0.033268 0.008264 -0.085593 -0.024730 0.265600 -0.146987 -0.067150 0.508421 -0.103071 -0.114842 -0.094001 -0.475220 -0.287544 0.047572 -0.416103 -0.096297 -0.336945 0.961497 0.135339 0.146747 -0.158862 0.273064 0.972587 0.153084 -0.173331 -0.945634 0.252209 -0.102181 -0.472340 -0.233859 -0.605943 0.323624 -0.094272 0.076183 -0.244722 -0.752226 0.186192 0.149400 1.918587 -0.043495 0.349991 -0.211252 -0.360745 0.537279 -0.159285 -0.129588 -0.291133 0.674809 0.457078 0.184978 0.293511 0.259689 -1.240988 -0.140154 -0.205126 0.328501 -0.433867 0.121655 0.202713 -0.557463 -0.179865 2.009458 0.061445 -0.174668 0.287212 0.179070 0.242004 0.722870 -0.427473 0.274152 -0.466512 -0.501669 0.458674 -0.084373 0.223865 0.093505 0.220688 0.612545 -0.117147 0.103950 0.031959 -0.054014 0.309190 -0.041091 0.386044 0.336774 -0.479926 0.047289 0.374178 0.392302 0.066293 -0.907527 0.073828 0.616117 -0.086594 -0.021888 0.104947 0.382401 -0.271646 0.487663 0.597336 -0.418979 0.221179 0.357046 0.647914 -0.388863 -0.105510 0.600509 0.041525 -0.658877 -0.402564 -0.616257 -0.106831 -0.357778 0.176133 0.867193 -0.049425 -0.055987 1.174635 -0.456979 -0.082197 0.036343 0.300613 0.122521 -0.183454 0.748448 -0.748563 -0.164244 0.015026 0.349291 0.540328 -0.153623 -0.419901 -0.177012 -0.143451 -0.226297 -0.627403 0.266301 0.508287 -0.109829 -0.344630 -0.039798 -0.201430 -0.317122 -0.670505 -0.088405 0.019105
<unk> -0.016816 0.012001 -0.006420 0.084446 -0.015407 -0.047841 -0.042729 0.016230 0.033244 -0.086891 -0.016024 -0.029938 0.076950 -0.023803 0.021417 0.053087 -0.016551 -0.022262 -0.016288 -0.061599 -0.020485 -0.026773 0.008321 -0.001913 0.038749 -0.026594 -0.029624 0.033688 0.030972 -0.062428 0.063465 -0.009106 0.025961 -0.015555 -0.040187 0.020065 0.039836 0.018618 0.046403 -0.021221 -0.002954 -0.046976 0.006987 -0.024779 -0.027515 0.020020 -0.018189 0.023301 -0.018492 0.030216 0.006290 0.026259 0.010181 -0.030619 0.030070 0.006876 0.026042 -0.002681 0.018625 0.017531 0.011835 -0.030750 -0.047631 -0.002167 -0.009618 0.002087 -0.004451 -0.011891 -0.030068 0.030476 0.011815 -0.026112 -0.046950 -0.005155 -0.055084 0.021798 0.014328 0.043247 -0.022475 0.051258 -0.027176 0.023115 -0.027629 -0.013346 -0.018417 0.003154 -0.002152 0.045640 0.075255 0.046071 0.015434 -0.044226 0.055276 0.011633 -0.004449 0.010652 -0.042503 0.000552 -0.059437 -0.024024 -0.028809 -0.060802 -0.112433 -0.007081 -0.237979 0.032012 0.006088 0.037546 -0.020698 0.054045 0.063043 -0.026626 0.002588 0.069565 0.019364 -0.028033 -0.053240 0.012075 -0.048437 -0.038406 -0.029700 -0.014226 -0.036763 -0.013844 0.021793 0.027068 -0.033193 0.030290 0.037117 0.043285 0.089574 0.045822 0.004983 0.036275 -0.032391 -0.012516 -0.058751 -0.033576 -0.035351 -0.059984 0.016994 0.020045 0.076151 -0.018470 0.049377 0.001717 -0.002458 0.008845 0.050835 -0.001113 0.037438 -0.023433 0.001424 -0.017560 -0.030703 0.019281 -0.042179 0.026048 -0.025239 -0.063147 -0.035911 0.005455 0.004748 0.027413 0.029721 0.015940 0.031059 -0.021206 0.006837 0.006253 0.009438 0.022804 -0.018583 0.013002 -0.059081 -0.057314 -0.014837 -0.003929 0.031264 0.037191 0.004408 0.025290 0.044844 0.028211 -0.030906 -0.006331 0.025049 -0.024177 0.052770 -0.034827 -0.065961 -0.039339 0.053780 -0.023784 0.013353 -0.017716 -0.044397 0.020417 0.012741 -0.043233 0.038463 0.000020 -0.016414 0.011264 -0.057935 0.020687 -0.010633 0.015726 -0.023740 -0.016456 -0.011979 0.001459 0.017090 -0.019378 -0.078285 0.037833 -0.032483 0.005628 0.008556 -0.026624 -0.051573 0.023845 -0.015232 0.001908 -0.005545 -0.054271 0.078469 -0.027280 -0.023955 -0.038874 -0.016915 -0.068477 0.050549 0.034901 -0.002746 -0.043386 -0.003161 -0.043556 -0.053303 0.073786 -0.091514 0.004212 0.008842 -0.021386 0.023784 0.011630 -0.046594 -0.056070 0.010256 -0.020139 0.020642 0.006646 0.010003 0.040270 0.008798 0.002097 -0.001323 0.079193 -0.055073 -0.073441 -0.015154 0.088051 0.085214 -0.037526 -0.013103 0.016932 -0.001091 0.025238 -0.032226 -0.024327 0.007612 0.007112 -0.024544 0.001548 -0.056608 0.039497 0.052576 -0.060882 0.017482 -0.016417 -0.011460 0.008203 -0.002966 -0.003448 -0.081154 -0.019197 0.022186 0.015882 -0.025258 -0.102289 -0.003296 0.009119 0.047164 0.011515 0.059761 -0.016426 0.080312 -0.020476 -0.032731 -0.004543
